{"input_nodes":18,"hidden_nodes":8,"output_nodes":5,"weights_ih":{"rows":8,"cols":18,"data":[[-9.663201436939021,-3.8580544773816343,14.503585743021306,2.788833223470254,1.7953232220349529,4.538112697562074,-8.635386543060354,-4.777645647288739,-12.694650682211233,1.5204629598308732,0.09756003964317456,18.646528634564344,-0.5077537573809646,14.483844215862344,0.17155380676002394,-14.39995870381692,-0.08722229168845519,0.8126230349752142],[12.50625345286706,5.142440794047923,-5.795784811479188,-4.894550290365418,-4.643415989725642,8.241180757446042,-15.18228749917516,-17.298862415234034,4.274513285999254,-2.4120118877469547,-33.24154536230753,11.634187046723138,9.212175799653316,2.7041840772651793,-3.8386491118744748,16.036052328705257,-0.09365625242715847,15.948535556586759],[7.427431027285759,11.200287510547282,19.367786849193322,-3.652141797802944,-0.7820172966788504,-3.4549407251583792,25.14114564561462,-17.33395404670839,-11.302053869568018,-3.9495903336825013,19.7549993719089,-20.646877578289196,2.9278504976704522,-1.077310826598095,-17.15141253797028,6.4719762900176825,2.7325240893677103,-16.241418581629954],[1.2299792817289243,-11.622431737128283,14.407100650336359,-12.236715359497282,3.94583541439203,9.819932352171309,-7.438538861102804,7.80966919127334,15.17351959263608,-9.545558659967819,-5.319980040288775,-10.87484079767384,5.050321924815199,-15.444304949189684,5.0190841608716,-19.380775803568557,24.549314148208897,7.70794944688275],[-18.463821621892283,3.280323215774215,-17.64787755264878,-8.762590022547682,12.881276910884715,5.241067449348316,3.5863889729019283,0.9380044575700673,-6.268078755999681,0.7042444425236324,3.0955748126056073,-8.676536890709302,15.290997006887858,-20.78356590182622,-0.8425129243670375,9.04029806009396,8.632820121260577,-16.981410409050916],[0.18520087629930532,-1.7059208707962694,4.049638995979909,10.918153003674211,3.0962976072056883,-17.745120213077644,8.190030774905404,5.724873838004608,-12.28079489182064,1.7415667173281753,-3.528471033564339,-12.419565621976687,12.681408752201854,9.185416041777621,10.367254153763302,18.728214247233915,9.549415095172924,-5.158677609760511],[8.009469296176434,4.4627767136348835,2.8652995778592865,4.8747104798541425,7.708007619261683,-6.01580406809917,-12.325715414973853,-5.545605986399812,-1.494743753696694,11.34335648101078,-4.031011285748953,-7.212747480497731,-9.20049162995334,-9.166742340479027,0.260496263845852,6.0440699011949075,-3.2846958624903926,3.5601184522795615],[-0.8409315472825684,3.7739578055042857,-4.782000200989365,3.809186562225783,-4.4439750240901486,6.307136072045953,-8.304093556924492,8.126797443098239,1.4058681511900732,-8.350662224105951,-4.0734690879368625,-14.858656059141476,9.498487053616676,0.4148818097521456,-9.559177435988593,-6.024159645463139,6.315327540192974,12.714901318420345]]},"weights_ho":{"rows":5,"cols":8,"data":[[6.448264847768935,12.100629253610547,-3.2095162558401498,6.169882279549028,-4.852285176020239,-12.014956386198566,-2.3892501530843746,12.75466962761788],[4.413924326040089,-11.708946326543865,-13.446481075803595,-14.701829555066922,9.349643606848016,0.3595048046909327,11.825692884659182,-7.271465870127911],[3.1647790465026415,-6.250307514808708,-3.9295798800082893,1.211139291500276,11.334994775529156,-7.301571825390886,-3.8390624551204766,11.105185025850353],[3.306693979449917,-1.005879970495403,1.8902792048846497,-6.015862870660954,-17.733578078462067,-1.9462512594531318,9.684962427007358,6.534232297068939],[-13.884368352488133,-7.337746720315963,12.790079853566283,0.3516888541498995,-9.437864132478673,-16.243148691741133,-3.2395666238118452,-12.818440364029584]]},"bias_h":{"rows":8,"cols":1,"data":[[13.80512706966523],[15.044032530413784],[-7.5228381308230645],[4.925092403104713],[-4.03506699261362],[2.8619956254178085],[10.816456388112055],[-2.7222079249941897]]},"bias_o":{"rows":5,"cols":1,"data":[[-5.740150433453154],[16.13671516778066],[13.526472649317558],[4.432307388481965],[3.247786908959612]]},"generation":6432,"learning_rate":0.1,"activation_function":{}}