{"input_nodes":18,"hidden_nodes":8,"output_nodes":5,"weights_ih":{"rows":8,"cols":18,"data":[[-29.59703390811684,-6.8370667485066665,-14.59442688426689,-48.44189033098152,-52.51623615963745,1.7036268965723718,35.41278705684058,29.594520500928514,26.607460153544544,-18.470852173350472,64.38088393606611,60.53589576383895,-52.98966699561844,4.225256097529585,-2.1879140589389503,-33.947094793930766,6.912976059781268,-0.451768410505301],[-30.662197797448503,29.687276685648953,-35.57774261663832,20.583585882736017,-7.3454766388934924,0.6676855268339037,1.6171220003646043,-31.753015979819235,-32.09104727729268,17.935910791101296,-20.433690218231888,53.73343965227227,-25.86283626556417,32.09547451520684,8.712766911371006,3.384183277206521,-3.905895422374256,-11.612112356678782],[17.456250483897353,-18.636677264871246,-10.834179390575905,-47.144283486092455,-17.43611872539017,36.73545284495403,-17.022704899000505,-9.912602010639121,29.435771399029473,-12.069102382494556,-66.03497602189988,4.309572488359319,44.885723244455185,2.9144569771221276,-2.671095240015311,30.291177689947272,-24.04280555077984,-30.178393108930933],[-19.704045090188288,11.067061385547388,-3.7533580767129955,19.063064474063776,42.43935380122467,-9.249644195242674,-45.001901295934786,-3.8939874047343297,105.61129714238855,10.905799979158573,1.3316611211147387,22.502858011244786,27.81309398264483,28.9546099782965,-10.408646718347256,-6.042780564305868,31.731146496632054,-17.816743773867145],[-63.18393241150078,-11.632457689023099,-51.911210937109246,10.234855244455535,-51.99634643056621,-24.37780119789575,53.07571218212959,-25.05556845384611,91.4895611255044,39.216723356314326,-31.36880848848516,44.15998136848402,-12.491885993543338,72.88703152406335,-46.997248019452854,-17.62910124707441,-7.171804978427662,-7.498045833797441],[-14.959159565013197,-6.209335575599057,-89.96258932449237,-24.48173598846018,-16.507170665206655,-18.587597275389975,22.753648320111598,21.465271919293833,-15.81336545876306,39.34306961780379,69.02566692582926,58.41745800286355,-12.259188071768772,9.79492880816205,-8.07562643067189,-14.991313788939403,36.43707905740335,6.634557671656268],[-15.901819530634695,-4.848021360098944,-39.935253007036955,21.026922256993295,15.655017860688963,-23.790667363507087,12.904179838481197,-20.06741926573143,-1.4364428212234372,29.73268385692626,-18.029623234397764,12.778914385856364,14.664917586228313,-46.42065370934422,18.677716036657078,-21.04083578171236,-25.516860903563735,36.08388839771979],[-19.50389498391638,4.27954566572607,-23.56419669058001,8.642278669365318,8.852266325078652,44.97423751678201,57.75846075118912,-17.27230826656107,1.947259990253954,33.9897886262237,19.16602148500776,27.401643615992302,-0.14926711276098953,-19.98989761852424,-34.26148262118433,-16.166317524646388,26.552290578820088,-57.86601802670247]]},"weights_ho":{"rows":5,"cols":8,"data":[[-11.281066820095417,36.443797114040635,58.52160033276866,12.420383617072904,11.73885961912034,-17.216054629964834,-27.21217241489278,-15.202554182181155],[104.64577036600413,24.07811187747629,-43.14821775750872,54.24551219088693,-22.766607716060566,37.46899870416431,24.860706241374977,-27.66374685038107],[28.538941113551587,20.810449087272524,13.501870453350529,-7.9155061587434,-34.252481433240675,34.00921144244991,13.161445925674444,-1.0567533569988496],[-15.397226059215722,25.995815548854853,-33.392176414769615,-10.308192546813125,-12.714283058546476,4.204781835746424,25.288599262018863,-2.640947670684077],[-9.35813806747355,-22.07191587633907,-7.741243345534424,-11.606624462636594,-34.28183299585498,26.78430029628499,-13.318952648308148,-19.406093457272256]]},"bias_h":{"rows":8,"cols":1,"data":[[-90.28268097198043],[-21.233588422673648],[27.43200974050138],[36.54725665893291],[11.7189795186723],[-5.189785262028801],[48.52825546925746],[-49.65986626437743]]},"bias_o":{"rows":5,"cols":1,"data":[[-30.319015405735215],[-26.09770347312329],[23.40956814162209],[69.57472281777953],[1.2777202762735707]]},"generation":51950,"learning_rate":0.1,"activation_function":{}}