{"input_nodes":18,"hidden_nodes":8,"output_nodes":5,"weights_ih":{"rows":8,"cols":18,"data":[[-34.63909006576146,-7.473359767720966,-7.998362608380665,-37.96156465530342,-60.97744234415968,-7.651182603370524,29.66038516614849,25.6423636887713,21.842781221716756,-22.39063299581633,57.618726380387464,59.04026659260651,-51.30610371979291,8.762970640210149,-0.48250957052328836,-28.598925392421968,14.209998758700678,-1.0613758755239457],[-29.127971941796677,30.268489785284643,-38.3916839843089,17.46144343856493,-12.516412213191442,-4.319199876479282,-1.977407156719607,-31.27481227265206,-30.86565544949171,16.718403575376353,-25.155408943213533,57.172432893916316,-15.623351586220759,26.094880654467218,7.073885945670516,4.296818390422297,-9.741582398708124,-6.9899234417427945],[18.8024657403307,-20.28794149811455,-8.207433230597292,-41.583850602836954,-13.246977090904373,39.053962612962025,-11.610390119288342,-13.806917968875767,29.96444530044773,-15.354053977282135,-59.82148894794441,7.016998677208891,36.722262986293835,0.36512512252576906,-6.867451364131723,26.786977813725837,-22.034890015350435,-25.669421345200334],[-19.920122250138547,10.763510007091663,-8.735944302862087,15.836854800065785,38.02898784076944,-4.663038301460505,-51.1223755190107,-10.013468134241538,94.7798583994998,8.532042196088607,1.5052313860029245,25.972325668511278,30.91778229382571,35.31825375730102,-8.357408871466324,0.4097584540985799,33.95160071455991,-12.674529340899356],[-62.61746012339884,-18.027421917785954,-49.39827842314422,14.118226986921021,-47.75164326605692,-23.96911137191087,52.98369740153404,-24.437131092051764,84.38243123406579,48.154191136959554,-32.28367578816321,47.00148088069281,-15.001830767404261,69.58586254247516,-48.146792086858596,-11.685951965366188,-10.125715942284543,0.05589762610828475],[-11.658974858314927,-7.641825194769362,-92.65572386446502,-30.205297234664414,-23.750153675182478,-14.08871467415902,24.65658281975992,14.281049458956941,-21.44440527711386,33.23560429464575,71.66742245223193,55.26512103409686,-16.00762097488705,10.303290407217192,-4.168914010302639,-15.367219803688826,35.51283301837153,4.0056762800761145],[-20.782881232055015,0.1299810332625021,-43.34431290672782,23.08782276043005,12.920916872672093,-25.95051756524606,11.237393820059035,-17.324874364225302,-5.271799923284658,34.215323170069595,-19.756230202488574,18.573666245851804,10.9397061536464,-49.10909682472207,23.099656678812487,-20.116013862336796,-26.880069742152266,38.14435130177319],[-19.77562894414563,-4.208433348200888,-20.637813066301035,5.7957530864203815,8.018460482289019,39.46139389039019,62.469951382409356,-17.575050830887065,3.1576290245798724,36.26281454230345,18.55861845940221,22.40211515209601,-1.101644381130183,-19.389354677626937,-34.437007163261455,-15.823529732874615,21.564417681837956,-54.98213585455864]]},"weights_ho":{"rows":5,"cols":8,"data":[[-10.986850475063639,36.921703783887764,54.81886119986742,14.07219256608839,7.896799830439373,-17.533851243348387,-23.89733977818509,-13.703694253397785],[100.83522608927166,21.792569006575825,-43.213379885469365,52.33718187033948,-27.61322300551278,40.9953602306063,27.20606349613961,-28.298080611014772],[28.709150267522904,22.256268265369002,18.98403509140407,-7.75954740703478,-36.2134669442864,37.72904774811236,12.727057248796413,-4.58584657484506],[-12.66787810527063,31.294988469726515,-33.29218847054372,-6.691205018672887,-7.152672233354213,-1.1965849858966504,25.37884066595361,-5.707156797450805],[-10.448595971338202,-24.826924084275127,-1.827310892578188,-14.101005103831424,-33.76942310652737,28.30059545349816,-12.276373366083318,-16.25717804636948]]},"bias_h":{"rows":8,"cols":1,"data":[[-89.35825634665039],[-26.618569943385314],[26.417868499945342],[41.2883160215012],[10.900736407250937],[-2.107081079669058],[49.6298660958114],[-46.20724721358695]]},"bias_o":{"rows":5,"cols":1,"data":[[-27.608029284085557],[-23.104880408561627],[23.646052169182532],[67.39840330917102],[-1.0654539107245735]]},"generation":47075,"learning_rate":0.1,"activation_function":{}}