{"input_nodes":18,"hidden_nodes":8,"output_nodes":5,"weights_ih":{"rows":8,"cols":18,"data":[[-24.65737238711392,16.198346355107397,-15.540258546217954,-9.747126740600667,-35.78048467719435,8.688064127670412,9.539381139546157,15.506990847577493,-3.0533326373087544,-0.7482411898207008,27.22096620321395,31.953783407953548,-4.879424758199335,9.692484317333069,-10.80806199516585,-18.495775042573488,12.540953272454948,-16.948565856376838],[-20.518970640390737,21.24349310612886,-14.762559310053712,6.584389329876147,-5.833544147492056,-10.903120010813332,-19.302676877690573,-33.33137505725837,-6.336304233363847,-1.7248775667386105,2.1594563776561952,32.21601900477444,-16.953206666018158,16.504464880999844,15.440792884739182,-5.226345399669912,-19.995757036919393,-14.04490876871036],[9.656248785337233,0.09346317752278654,2.2170429673523357,-46.32470054873089,-12.877747392137843,27.065665805571022,-25.619209166233404,-16.020064233218008,39.818580066030165,-19.454664956347706,-54.70972558715927,10.509095527764412,24.82144049293166,-4.431717319776162,13.603990199674621,19.17085446734082,-9.632253037373708,-20.208299410575286],[26.92150128876665,19.66863336341116,29.710178904455617,-15.780313206416224,37.870898789188,12.591427473394994,-31.233822639345156,-21.038623619695713,81.45749518743293,-0.0060883257154698,8.24428086429449,13.416392129800153,-1.140600147336888,42.443006792387266,-40.835819502126455,-10.405064412677469,19.339308360827435,-29.06711124401691],[-9.939614781316786,10.628866470213701,12.28106038783638,14.06274616958729,-6.042965785495948,-47.4899412494392,26.682411199539917,30.032955657659134,47.91100015819559,21.419035688504433,7.116503295258708,24.20660366166215,-4.282589815971603,46.685430271118264,-37.40707301517124,15.244490924075121,-31.096877073511116,19.004830438904378],[-16.987892726853048,-5.339695611198506,-47.7232510425896,-35.56776204037206,23.608533283644224,-60.6701026885646,16.799868066675106,22.06891118542928,-33.8922335068378,42.898864948444995,71.62320135789673,10.840140709309289,-7.742059994678774,-6.662134295222701,19.627982921833507,-22.438611156351985,20.14647017650034,17.822830012802342],[-1.3493932266677944,-7.8480158092393655,-37.518631579296795,29.05876118323852,-6.396113993598494,-14.760602711094416,-2.2398473173956512,-18.61817342191659,0.5260302536015028,5.096439236345129,-12.170688423072349,37.44156223179253,17.974196049977117,-53.67309787570161,18.381646623049296,-14.667879440159668,-13.090757123520115,13.696343167676586],[-27.010569972149558,-19.727101553600743,-17.426655808587647,-7.101500305904018,24.884058084559392,48.13219687613914,31.845123582191874,-26.147238994651122,-12.054946231484923,12.404919785635128,10.908472332821606,14.430169736168786,42.627693157060634,-0.23461248076274022,-35.055745010132576,-29.85561023706797,13.605674997128453,-26.883790660953768]]},"weights_ho":{"rows":5,"cols":8,"data":[[-5.244055980445334,6.805145719747559,49.184455129044366,17.8450282815437,-16.73042876687058,3.6985070973226337,-41.52014409442724,-7.428208268053219],[69.91125526689827,22.109848896841196,-20.040070679234333,32.49228996282916,5.284095707223933,22.132057845422153,9.880513840160148,-7.537363735606633],[-1.4671391997172196,13.263674083267933,36.04963038282363,-19.516092752389365,-19.74218296048905,33.22918396859282,24.708763582478042,-3.1195213261398616],[-23.410543326237544,34.85756552069131,-15.072889787724264,-3.3637934070786746,-19.54404394513285,5.383918693331096,41.06949852720312,-32.04628594177709],[-26.99913619133706,1.6424377194991449,16.033680739730606,-28.749432321393595,-33.128549513173525,3.246183646914792,-13.09676024281724,-32.443204169939065]]},"bias_h":{"rows":8,"cols":1,"data":[[-61.854926563947274],[-19.45827140895973],[22.234596907768353],[15.633707290058288],[8.235711296056763],[24.787560446094698],[50.0342072033563],[-29.814708900677566]]},"bias_o":{"rows":5,"cols":1,"data":[[-21.809078001894452],[-6.584189254139834],[12.20825565718935],[58.54356612248798],[4.146107268075586]]},"generation":26263,"learning_rate":0.1,"activation_function":{}}