{"input_nodes":18,"hidden_nodes":8,"output_nodes":5,"weights_ih":{"rows":8,"cols":18,"data":[[1.1455535502028154,1.2850986568864018,2.936256970746805,-2.55499769453215,2.574671106608276,-2.5316956099943946,-3.806938372944852,4.345327723892187,4.452889242966925,-5.037868537615864,-3.4451682464790028,-10.107640982511336,1.1787352730854896,3.379224282976807,4.879122351324234,-12.004897711897033,3.554579390975698,-0.33091664857199626],[1.580256024546628,4.854295933097497,7.333009436392022,-2.724480872620241,-3.2687715324986595,-4.4802196995105685,-1.2606277992045607,4.993611107031926,7.937814392794056,-3.472381562726711,1.1177397124169342,2.3937928258223127,0.6995637588016319,-6.709401741430133,-5.716999022399084,-4.834985878029346,-0.24890388966896126,3.9753367907855597],[1.828174767633154,5.681156468403027,-7.196910876548261,-0.6429564490603563,-1.3838379736292943,3.739278763897125,-2.174645545301526,-0.09500610838173601,2.788425004045873,-2.625561534973781,-3.6947002700356917,-0.9873550003860703,3.4847050262037875,4.7603455700208075,-2.90308430217328,4.90594910347333,-2.3275490321935033,-3.3676541799506055],[-0.8720757869833746,-5.284489201394412,-0.21492737016718644,1.4179815133010574,5.257385067906145,7.678404550270887,-1.938871705052756,3.865084449375394,-4.840586603562944,-0.10983675187798014,-1.2714913744209553,-15.619055475005132,-5.627518321731853,0.6068094420080118,-7.98893259803705,2.4394756837761835,7.598653281132261,2.113622102293628],[-1.9590140569830705,-0.007336310924881684,-0.9775067316950201,6.80301625877587,-9.551028786381075,-4.785030751810719,-4.5579362650853215,-9.973658811368168,1.6611515012414866,0.012857761417785274,-4.613360725398913,-6.052007181048477,5.460082711666815,2.0464809885933035,6.606802303916151,-0.5707732133857634,8.22991669884202,-7.004346866517986],[-0.9938386295401012,7.170281051988213,-5.093334337901468,3.579987961874165,-4.079978372813767,-4.129330246406647,-7.605361204207935,-4.674389314351705,-0.15908760081049456,2.0407699658217133,-10.305418373410072,2.687400214764492,-6.607028824573663,6.550620984602795,3.6544391866937493,-2.415300520846188,-5.865330750042674,-1.9415758863153927],[1.2815169082190434,-1.5550157976264452,5.090807753603365,1.3826435220531716,3.006572641551978,-1.636602744113067,0.2552006433137389,-1.9362520249756918,-2.404130565842649,-9.747666024527248,-0.17577408810044276,1.8555117276200646,0.8376520096800725,-2.374346491698105,3.698819027260056,1.8609969780833473,-7.866593403139559,4.286349305258286],[-4.46907489179892,-3.4359944177247748,3.247354268165808,-1.1760850996715737,-1.8234853688310944,-0.4782420328638646,-5.393585995184453,6.189369746809609,-0.7006583773435227,0.6481805863762722,-5.556600251476664,4.205423383567858,-5.644034187720687,-3.014847373106006,-1.2679377970727623,1.8867368472570705,0.48476997565550345,-0.681109675101673]]},"weights_ho":{"rows":5,"cols":8,"data":[[-0.5976651967682144,3.906478133104372,-3.683951261301077,-8.999433470403257,7.854999595153411,5.702132194004605,-1.3738505362560725,-2.783009457314493],[-2.55251963342814,-6.2811076619108395,-0.6700986047275279,11.789573653943025,-5.065146285482716,-1.9858983053181734,1.8288820315702354,-0.840654504214826],[-0.6813984632965293,5.123597405203929,-7.285713041721969,7.664022291489552,-1.7132759034816727,-1.7138639909334088,6.231436753143403,-0.35377805117861116],[-1.214696032927623,1.697821418409762,-4.759716489004688,5.49883383363506,-12.094106037574115,-2.2187428084879897,-1.9871349381159908,-1.6285326820877195],[-3.910893253609249,-2.3816511154439106,4.349594457271671,2.025029103716806,8.444205136528117,0.08591011887863433,-5.802595339601148,-0.5226286854600658]]},"bias_h":{"rows":8,"cols":1,"data":[[-1.1566506655801034],[-1.734417340326708],[7.039666716782429],[-4.437688951399462],[1.536775449889507],[-6.0263575173443655],[0.4703381339449808],[-5.225126740689832]]},"bias_o":{"rows":5,"cols":1,"data":[[-0.8446262209708841],[4.6530038651930505],[0.7246774305571717],[-0.1769920939921372],[-13.457214997179147]]},"generation":1214,"learning_rate":0.1,"activation_function":{}}