{"input_nodes":18,"hidden_nodes":8,"output_nodes":5,"weights_ih":{"rows":8,"cols":18,"data":[[7.508900806584894,4.582679437313989,-5.721388420159032,-1.7825793623363266,-7.691761728915698,-11.219397835607554,1.923850354785527,-0.13148094484305237,-1.6263018169730896,2.0402966578747006,5.016357692713024,15.507204688027617,10.019365627774711,-14.818642505099975,-11.44480368123881,-18.122919608751626,18.60861833170129,-18.60767988156054],[-16.04985822713076,-9.09234576096171,12.94536410496678,-7.738137572428314,-4.430253391455377,-8.427757141033945,-2.006195868484418,16.229050057862004,1.274654355082167,-9.12344702440611,13.688660070978615,-2.336852912537909,-22.724271126142593,9.838941677087021,3.5750440216128245,-13.142267817518,6.057939502177627,2.8165975809483923],[10.369760770224245,-0.9687746537584662,5.474792697672002,-3.322970637368436,-5.111195288059136,12.343597147616556,-21.044346092152505,-8.224468746237747,10.650988914472459,-1.8826865266947823,-13.658221308535813,-9.901292193283583,15.678895594544414,-0.30094233759829747,8.711392867212359,2.6863253159763016,-1.5260115487951724,-32.25681266094223],[25.440074198423655,-3.957145747282137,8.411834409176683,2.149190264962842,13.562909280160076,-12.999654387253008,1.5510733814088487,4.776375338939519,-2.032918249857823,8.418452801190238,-5.096788425169862,3.011396158908828,-13.015436503673746,0.2733796226367683,-24.466704001239904,4.13989210366894,14.404787321865097,-10.134574216944435],[-14.771952725916726,5.197089384028124,-0.7385767591654975,5.302357705015423,-11.215302952078826,-6.9077579230741435,-10.701767883824152,-17.33777157483994,6.470509565339994,13.757739861921378,-1.7434803932123102,6.3768705809742,-0.5094020160000703,20.876255381078334,2.6035634913363284,4.391956388089107,-9.67831294751212,0.34324394167727273],[-2.312585394990232,0.7484272946817354,-11.705342455566353,14.397435946010633,6.071829055911569,-16.18712929841929,-4.952889570453969,0.9863746592710028,15.816098236402674,3.2109233062113374,20.764339845070154,-1.149996231273741,-11.360469439122694,5.753938595418958,2.399735489596618,-5.044544320965816,-22.292178551287673,13.116350604200738],[1.014179690403962,-5.007393054516339,-10.180819355368927,4.768800352235018,6.756821512248281,-11.069037862138183,3.0962602107513293,-2.7625069701520792,-16.629847290498493,-0.9745662703246203,12.26606267664281,23.230525698458273,-2.3205189148703216,-19.256701709313933,20.04865156477598,-9.745562301631335,2.7471510628397002,-22.289135043620742],[-4.947045955429522,14.943851500807892,5.809494014738096,-24.315516784613987,16.903614464332023,-3.272813644127024,6.045391759391025,0.5314738154279334,9.962668149365475,3.4867397127248463,-10.525358512754396,5.074406216449359,14.349718697196563,4.779819302945693,4.672931147621666,-13.727752462174218,-17.07082166798268,-20.614400842069756]]},"weights_ho":{"rows":5,"cols":8,"data":[[-0.8144687997590687,17.986987244748182,15.390282169506968,-2.677821577508265,-9.955546088799782,2.410012711038059,-7.247100578202158,6.084524412218934],[5.797186777442355,-1.178378335867695,-9.916156785691808,15.322742899831685,-21.28249635139739,12.245646784697078,-7.702436653621123,11.501786199412884],[0.41337954829957146,1.291609550475401,5.247004364089351,-17.80834241931327,-10.531265649403698,1.3282387679173522,10.554654182567168,11.869000873703735],[9.099759432608208,8.812008840010343,-4.462147164234257,-10.462296424413852,-1.0665265267405517,-8.610168984079662,15.39274542004672,-19.35276963046322],[-4.668813922135238,0.8564475466584889,5.73929583375008,-10.938997000577228,-14.491616029404645,3.810060109043795,-2.726768265884371,-5.844686914402791]]},"bias_h":{"rows":8,"cols":1,"data":[[-13.177723392443687],[1.605266756443594],[1.6064671930447143],[-1.3252634902837497],[26.86921678842267],[-7.163464951673994],[9.178616371444866],[-2.413533839751385]]},"bias_o":{"rows":5,"cols":1,"data":[[0.00955149096024982],[3.7444797313421674],[5.811893977307714],[5.948529023724131],[-16.10283260395319]]},"generation":4779,"learning_rate":0.1,"activation_function":{}}