{"input_nodes":18,"hidden_nodes":8,"output_nodes":5,"weights_ih":{"rows":8,"cols":18,"data":[[-0.9809655499855071,-1.6338949464812464,1.9611324042824891,1.709002409910284,-2.8782682307192515,6.2599994693481396,-1.803927357190619,1.0965765142232464,-5.122408032951867,-2.075170998432847,0.017559093686284638,-4.61947950178963,-1.4113553371634888,0.04429613979096081,-7.113219093690223,6.77879510594602,1.4561013491140677,-1.3714497212140104],[-2.7754783537100547,-1.6752754479917582,-2.532361296889362,3.7076215626835056,2.5985115384183475,-5.042262607836131,4.606745349592957,-4.365422196640966,2.7656967401402253,-2.0670920366597763,2.7046400272919073,-7.16803057619968,4.590854991476763,3.1003288537124125,0.3942663163463358,1.0533197070954683,-0.968598051229273,4.651579112543814],[0.5717895311160404,6.771109388872442,1.616263060116349,2.322877843516288,7.92534849976423,2.3912794626812532,-3.2613800043771217,-3.400123634905144,0.10933051324204177,-1.1609536408291126,-8.645504473488135,-0.2779633610155486,-1.4512715280072248,1.5689484500448778,-1.0727684423697286,4.897079284869357,4.630734579289701,-6.004892100710688],[-1.7380199433414916,-3.204630208935885,1.1463406665896558,-6.782113772288337,-5.8751889712694165,3.5373654135944874,1.168468804355825,-2.4735996864094645,-1.561504867885819,-7.141491445619728,3.633284366133824,-1.1878046863052802,-3.99466231934842,11.403592091962423,3.860102986797439,-1.0888482273015982,10.013023759556646,-5.483038130259836],[-1.0279028970821984,-3.028558324705415,-8.159236400999152,-2.125740906472493,-2.9971789125123776,-1.5642037991017643,12.958020073939913,-12.162604978601955,-1.6587529159397478,4.232067796112387,-0.44003026200232953,2.3717442658717696,-4.2110432356764536,6.655911540264728,4.641047362851736,7.484979448510725,-4.441378535283847,1.479307296608528],[-6.619919061915754,0.24154035175498823,-4.266486517549517,-2.0536503448661922,-4.6081868998220115,4.172782957035935,-0.4487940525688815,-1.2116663757496817,6.683560125248707,-7.025592795828185,-3.062664085095725,-3.352694922314392,-2.4980602734747626,-3.615239046070155,8.11208600114441,-6.579670370255371,12.485835492242815,3.951756448719304],[0.21791504323988944,0.5078168474328957,5.848551906759292,-3.6693676973796117,0.9820986079616878,-3.442586315951608,-0.42192788002176435,3.045818176140351,1.0118028270791082,5.545782680730847,5.27140945386316,-9.656947602894002,4.2030512870030865,-4.239103113611371,-4.813794496130306,0.07784969420127463,1.7945542341895848,8.851887998431318],[-3.1881641730139867,-4.21399212515437,6.490637319977242,1.2011197012295676,-3.1594706686619065,-10.615628620567977,-4.72388229044314,2.9899148886775597,-0.388543510061077,-0.706216143247513,-3.025975270227132,7.244232677374771,8.621812279423507,-1.2443446701828496,0.7014529774985753,4.689078788589491,-0.7793045066394977,3.8579745440968645]]},"weights_ho":{"rows":5,"cols":8,"data":[[-8.862562404316012,-2.370081041871508,0.3002177389473494,-1.8756935562028267,-0.5755193606593927,0.32093749649414716,-2.6171228921340246,11.375550609660504],[-2.667693123726978,-6.804460306326353,9.89112993787746,-3.461366286735324,1.1961394990663547,-5.353176293694216,-2.3881624023439048,-7.001289404412558],[1.7478484660105384,-1.9713757526150568,0.4749372825713907,0.47946082307233395,-1.9077794420827183,6.245067920147376,-0.17041625734442162,-1.3997910011024712],[0.43611922237694856,7.531423719025814,-1.3375357483705805,-10.242549825358623,-0.18616523953474343,0.4480306583592923,-0.4524636899096535,-0.8427396785334684],[4.807402328729786,-0.6186978737755113,-12.51825998280844,-11.943126072797378,-4.524595162459999,-1.7191591177901164,-0.3309683958498769,5.115635038407501]]},"bias_h":{"rows":8,"cols":1,"data":[[0.6728428038155778],[-4.311552103863633],[-3.6121762415753857],[7.734377084274441],[11.6702921983729],[-1.713025467074391],[-4.948940389064962],[-1.7053300211030016]]},"bias_o":{"rows":5,"cols":1,"data":[[0.8675903645721175],[-2.372424498601669],[-1.6486566478441291],[5.2686586258780235],[-12.455911178641559]]},"generation":1078,"learning_rate":0.1,"activation_function":{}}