{"input_nodes":18,"hidden_nodes":8,"output_nodes":5,"weights_ih":{"rows":8,"cols":18,"data":[[12.09380194719046,18.815262660906797,13.199301245514514,24.329687107963725,-35.117017521236626,1.895318986152575,-16.769486663045143,-14.67314646208566,43.548570392833724,8.03982806210476,-9.56058554209458,1.1865997349470754,6.1497650375774,0.878632670943365,-21.497380122704577,-6.187534851027702,-11.570439514826868,25.637772000294802],[-32.42150430670325,36.06424192219795,-46.859225674749,-49.775380110126264,35.548393065317946,26.166445813273654,-2.8356050757411344,17.26826144240633,-13.374031362996508,38.59190738587245,1.01205255059408,-19.318786845414923,-17.032281843435708,-0.9695899902683421,-67.84178219443179,19.041354644862366,18.256906064960415,-38.568156117682214],[-20.743390527626254,5.930070555979095,17.00427842946534,32.321602881077425,-35.65456274751423,35.02526255345105,10.983317409462659,37.276491813125936,-8.45958682660705,15.328866493062485,-27.093355364881557,0.49708307226458837,7.584249253022661,16.99462769322481,-13.949920429104933,-38.84509969791685,14.301936958178999,-5.9467426944012995],[9.84951808218308,30.40523451105482,-13.648270270130071,45.102617340739044,5.090420760934582,-22.54080862044777,2.1052102742606666,-30.359570179425482,27.095480132813847,32.502326331824875,-15.128640801991457,36.47166736687845,-28.056591253488218,28.467684250601515,-26.2222045670518,19.211387161821428,-2.623516445000534,12.995112215306925],[13.228642332594559,-14.74866949798096,-13.224741203153942,7.477053336715807,16.9810531281145,18.470397603821766,-0.3282667604170152,-1.922023131482014,-0.5150147000710907,-17.85314535229578,4.941271179590343,15.912725083689235,-14.41196835389708,-29.551745405288063,15.541861666694757,5.78410029110384,9.310873216770597,-13.13100210636061],[-7.761663450213613,20.228319372373043,-30.67565007240791,-47.8179323548649,10.595719830360704,14.944120315922765,-6.301437208504911,-24.72437806011512,3.8008293156883335,-6.574883264774131,6.6064528310214055,8.588029502589247,9.589899499909619,1.7042595366313673,-35.59907484752024,-7.95679116451795,51.60917984431455,-12.594862711239482],[-17.377349543367178,15.23666282580575,4.240529610642613,4.106374467996802,9.950291271288396,56.64166018704721,20.99552599817596,45.18357157818355,-54.96512594364716,-15.060573243806404,-32.76586833244563,17.912873663351345,37.12132636107819,-8.223993660488047,-16.93858253226041,-5.129840552444567,6.961338088834362,-1.1730338915420928],[9.431172111443919,12.070947551374546,28.944057013644013,-38.617794617660365,-59.64368830398769,23.907248927654237,11.587408793871418,26.684503168999534,0.33420718910977476,35.048466197133166,-25.64664652888271,8.107189762001111,46.70643474065179,-14.22480137541881,7.023777026870632,-13.23759384695957,14.852343987734985,-16.109673866420987]]},"weights_ho":{"rows":5,"cols":8,"data":[[-1.1814659909654512,-11.141542335018034,-27.21317507054669,-10.515356270398382,-21.319042871790163,-16.654287293978378,36.43756541227841,5.106262551924372],[-32.588347974113034,16.631136920365762,-22.094526307761924,26.055488846901564,5.439204564872462,-8.449432065740218,-9.368386679926486,-55.901023227849976],[-26.07070168778821,9.087901297740133,-41.34792886464007,-18.536995827287335,37.815580248431395,10.663354751983178,-3.84498635678375,10.191985235668126],[5.947119643071002,-40.93335390304367,23.951512492077878,20.987216072837207,-21.225488459560626,-39.9586751153477,-39.37708007351408,-22.417312688675526],[14.102456288318944,-7.305009095277871,-39.13384394801659,-14.78902224745219,-4.605417196479677,-33.65316036651929,5.2577938670370905,-12.378750372111336]]},"bias_h":{"rows":8,"cols":1,"data":[[-15.7836872713969],[47.87729109235354],[34.544376409603174],[-15.751144543117187],[-2.02667283310452],[-0.9901737119959495],[16.184559576180135],[7.477527626200641]]},"bias_o":{"rows":5,"cols":1,"data":[[12.83887686864573],[7.703023073540047],[13.463657119780443],[3.0520795651891985],[-25.38538015805695]]},"generation":36734,"learning_rate":0.1,"activation_function":{}}